SVM-light Version V6.20
0 # kernel type
2 # kernel parameter -d 
1 # kernel parameter -g 
1 # kernel parameter -s 
1 # kernel parameter -r 
empty# kernel parameter -u 
68 # highest feature index 
75 # number of training documents 
2 # number of support vectors plus 1 
0 # threshold b, each following line is a SV (starting with alpha*y)
1 1:-0.19840035 2:0.19840035 3:2.1837823 4:0.55159914 5:-2.7353823 6:1.0086315 7:0.60297543 8:-1.8806832 9:-0.012449279 10:0.44012633 11:-0.0082610808 12:0.73603374 13:0.20886926 14:-1.9680201 15:-0.78611386 16:-0.78591108 17:2.2232943 18:-0.82451624 19:1.0464001 20:0.36518812 21:-0.81422597 22:1.2864931 23:-0.39067575 24:-1.4801309 25:1.0070877 26:2.2238047 27:-0.85278732 28:1.474056 29:0.1738683 30:-0.65599811 31:-0.65702701 32:-0.87340796 33:0.5267238 34:-1.2130671 35:-0.39809728 36:-0.42863461 37:-0.20608322 38:0.0052486979 39:0.41637874 40:0.844881 41:-0.16572779 42:-0.056051765 43:0.39213035 44:0.10727145 45:0.61733627 46:0.1933677 47:-0.26237583 48:0.51972932 49:0.10414499 50:-0.72290325 51:-0.43187848 52:1.4631084 53:-1.045714 54:0.28509679 55:1.351329 56:-0.56376791 57:0.42264831 58:0.85155904 59:-0.20118149 60:0.72820467 61:-0.4256781 62:-1.9588534 63:0.454218 64:0.64253408 65:-0.031061513 66:-0.19088183 67:-1.3861573 #
