SVM-light Version V6.20
0 # kernel type
2 # kernel parameter -d 
1 # kernel parameter -g 
1 # kernel parameter -s 
1 # kernel parameter -r 
empty# kernel parameter -u 
53 # highest feature index 
30 # number of training documents 
2 # number of support vectors plus 1 
0 # threshold b, each following line is a SV (starting with alpha*y)
1 7:0.00038561437 8:-0.00038561437 9:0.0031056912 10:5.3019063e-05 11:-0.0031587104 12:-0.0021221419 13:0.00092339347 14:0.0049375459 15:-0.00085784437 16:-0.019427247 17:-0.022543088 18:0.018022085 19:0.00048311081 20:0.026397839 21:-0.0049913442 22:7.4286378e-05 23:-1.601694e-05 24:0.00011857143 25:0.00031065958 26:0.0083757564 27:-0.023013428 28:-0.0002060885 29:-0.0028959641 30:0.0014635579 31:-7.7565332e-05 32:-0.0045983428 33:-0.0018883484 34:-0.0058200047 35:0.0028520857 36:0.0018381928 37:-0.0065290253 38:-0.0033401619 39:6.1679748e-05 40:0.0021549489 41:0.003599284 42:0.00054135971 43:0.0059255818 44:-0.002542001 45:-0.0053371913 46:0.0016428088 47:-0.0072450493 48:-0.00076119025 49:-0.0073928763 50:-0.010493396 51:-0.01429188 52:-0.016326733 #
