SVM-light Version V6.20
0 # kernel type
2 # kernel parameter -d 
1 # kernel parameter -g 
1 # kernel parameter -s 
1 # kernel parameter -r 
empty# kernel parameter -u 
53 # highest feature index 
57 # number of training documents 
2 # number of support vectors plus 1 
0 # threshold b, each following line is a SV (starting with alpha*y)
1 7:0.040867113 8:-0.040867113 9:0.1296812 10:-0.12334971 11:-0.0063314843 12:-0.00010531232 13:-8.8769288e-05 14:-9.2717753e-05 15:0.00016675862 16:0.12759961 17:0.062302355 18:0.021075342 19:0.00063377497 20:0.0075730332 21:-0.00074051478 22:2.6189875e-05 23:-1.5460427e-06 25:-0.043159906 26:-0.013502305 27:-0.021815859 28:0.0080661383 29:-0.024995139 30:-0.0036983083 31:0.0016107999 32:0.028061094 33:0.0035500345 34:0.0054706731 35:0.0041869585 36:0.017255602 37:0.040177636 38:-0.0026004326 39:0.017424151 40:0.029996686 41:0.045438532 42:0.029664492 43:0.016560599 44:0.0058076405 45:-0.0071318415 46:-0.083556958 47:0.11407122 48:0.06487374 49:0.16697356 50:-0.074166335 51:-0.043661367 52:0.008422168 #
