SVM-light Version V6.20
0 # kernel type
2 # kernel parameter -d 
1 # kernel parameter -g 
1 # kernel parameter -s 
1 # kernel parameter -r 
empty# kernel parameter -u 
68 # highest feature index 
29 # number of training documents 
2 # number of support vectors plus 1 
0 # threshold b, each following line is a SV (starting with alpha*y)
1 1:0.06815923 2:-0.06815923 3:-0.085092627 4:0.14672971 5:-0.061637085 6:0.3047812 7:0.084245302 8:0.20728229 9:0.25136045 10:0.0066310968 11:0.084454052 12:0.12175516 13:-0.1058805 14:0.019701792 15:-0.045160692 16:-0.04511271 17:0.010155755 18:-0.12828898 19:-0.049596395 20:0.084741972 21:-0.00084835995 22:0.33639777 23:0.29333526 24:0.0024253845 25:0.0033887313 26:0.010062827 27:-0.12831929 29:-0.042972963 30:0.036650017 31:-0.1839474 32:0.036241628 33:-0.016541671 34:-0.011033661 35:-0.022004973 36:-0.0082002133 37:0.056013718 38:-0.013518875 39:-0.015056889 40:-0.046913482 41:0.0089335442 42:-0.05077878 43:-0.039190382 44:0.047906198 45:-0.012658404 46:0.031060025 47:0.081311092 48:0.034334995 49:-0.10237404 50:0.027835974 51:-0.12970747 52:0.12966403 53:0.079518355 54:0.024532463 55:0.030461101 56:0.024238095 57:0.03257411 58:0.031288408 59:-0.010245271 60:-0.026341278 61:-0.086052999 62:-0.016480589 63:-0.072868973 64:0.07193552 65:-0.087855518 66:0.064560264 67:0.0017890387 #
