SVM-light Version V6.20
0 # kernel type
2 # kernel parameter -d 
1 # kernel parameter -g 
1 # kernel parameter -s 
1 # kernel parameter -r 
empty# kernel parameter -u 
57 # highest feature index 
21 # number of training documents 
2 # number of support vectors plus 1 
0 # threshold b, each following line is a SV (starting with alpha*y)
1 1:0.092714466 2:-0.092714466 3:0.245791 4:-0.038458213 5:-0.20733279 6:0.75254083 7:0.30611062 8:0.4128806 9:0.19991411 10:0.092905045 11:0.10400714 12:0.25688979 13:-0.4110063 14:-0.1523384 15:-0.15070353 16:-0.15057471 17:-0.0091157956 18:-0.076691642 19:-0.01082126 20:-0.2319749 21:-0.12995267 22:0.73714787 23:0.2136675 24:0.0022098722 25:0.0010819522 26:-0.0076469169 27:-0.073403724 28:0.008833359 29:0.014734258 30:0.26477191 31:0.097686589 32:0.3946898 33:0.010307387 34:-0.016170911 35:-0.36685002 36:-0.26415613 37:-0.48393011 38:-0.31279331 39:0.095196292 40:-0.011541028 41:-0.13081439 42:-0.416991 43:0.0021135095 44:0.020096675 45:-0.1551598 46:-0.0615554 47:-0.25837228 48:-0.12435266 49:-0.19857295 50:-0.50098312 51:0.27016002 52:0.19792902 53:0.12673354 54:-0.081163011 55:-0.20301418 56:-0.10180227 #
