SVM-light Version V6.20
0 # kernel type
2 # kernel parameter -d 
1 # kernel parameter -g 
1 # kernel parameter -s 
1 # kernel parameter -r 
empty# kernel parameter -u 
68 # highest feature index 
86 # number of training documents 
2 # number of support vectors plus 1 
0 # threshold b, each following line is a SV (starting with alpha*y)
1 1:-0.47409284 2:0.47409284 3:3.2822087 4:0.34053582 5:-3.6227467 6:0.96050394 7:0.71555626 8:-1.4433371 9:-0.60291874 10:-0.39837846 11:0.88827884 12:0.94534224 13:0.66289258 14:-2.4604657 15:-0.89123333 16:-0.89072508 17:3.3491559 18:-0.48740557 19:1.0569154 20:1.4380342 21:-2.4376662 22:0.40769526 23:-0.46965638 24:-0.076192841 25:1.2231491 26:3.3165777 27:-0.50224149 28:1.8973914 29:-0.3508909 30:-1.7524005 31:0.14991869 32:-0.076734222 33:0.42785174 34:-1.7605556 35:-0.74701965 36:-0.5906114 37:-0.1054514 38:0.20600829 39:0.25913239 40:1.165342 41:-0.35167864 42:0.065293685 43:0.30809194 44:0.49908561 45:0.02424142 46:0.49237883 47:0.1345637 48:0.99671656 49:0.29319879 50:-0.88752556 51:-0.47724357 52:1.9107335 53:-1.4756055 54:0.35086223 55:0.86872953 56:0.93189204 57:0.72975272 58:0.45414835 59:-0.60686314 60:0.013903741 61:0.083070375 62:-3.039448 63:0.06200067 64:2.6820583 65:-0.01856515 66:-0.6650961 67:-2.6662779 #
