SVM-light Version V6.20
0 # kernel type
2 # kernel parameter -d 
1 # kernel parameter -g 
1 # kernel parameter -s 
1 # kernel parameter -r 
empty# kernel parameter -u 
53 # highest feature index 
23 # number of training documents 
2 # number of support vectors plus 1 
0 # threshold b, each following line is a SV (starting with alpha*y)
1 7:0.042389311 8:-0.042389311 9:0.70930851 10:-0.18844581 11:-0.5208627 12:0.1709345 13:-0.075377978 14:0.16288172 15:0.10716281 16:-0.1375991 17:-0.26584741 18:0.063618787 19:0.063644081 20:0.35420012 21:-0.23452954 22:0.35388929 23:-0.23501503 24:0.03888889 25:0.032006133 26:0.25183982 27:-0.4968158 28:-0.002971936 29:-0.268408 30:-0.11907363 31:-0.2383488 32:-0.32527623 33:-0.030390827 34:-0.10818262 35:0.058127496 36:-0.027944777 37:-0.29910362 38:0.095980167 39:0.22619034 40:0.10670392 41:0.22096299 42:0.032111794 43:0.019364014 44:0.24280852 45:-0.062619373 46:-0.26255471 47:-0.029478302 48:0.27270213 49:-0.080246247 50:0.11075298 51:-0.13874742 52:0.093593463 #
