SVM-light Version V6.20
0 # kernel type
2 # kernel parameter -d 
1 # kernel parameter -g 
1 # kernel parameter -s 
1 # kernel parameter -r 
empty# kernel parameter -u 
68 # highest feature index 
90 # number of training documents 
2 # number of support vectors plus 1 
0 # threshold b, each following line is a SV (starting with alpha*y)
1 1:-0.17474578 2:0.17474578 3:1.4193875 4:0.099142134 5:-1.5185295 6:-0.71723163 7:-0.29101089 8:-1.1896313 9:-0.24574475 10:0.2300072 11:1.1008347 12:0.65347266 13:-0.25871927 14:1.9798927 15:-0.57516289 16:-0.57441241 17:0.60101533 18:0.79486471 19:1.0918447 20:2.5427136 21:-2.0294399 22:0.14583956 23:0.7272191 24:-0.37912622 25:-0.65615588 26:0.58646548 27:0.80339724 29:-0.32238978 30:-1.6906228 31:-0.17203018 32:0.78694147 33:-1.337392 34:-0.43190083 35:-0.5376398 36:0.13790756 37:-0.0041818973 38:-0.049224038 39:-0.47806284 40:0.16611473 41:-0.31228077 42:-0.34468585 43:-0.4152284 44:0.24238274 45:-0.056058776 46:0.19026992 47:0.25938141 48:0.23572837 49:-0.43590632 50:-0.79520142 51:0.38863903 52:1.2284253 53:1.5442891 54:1.3496106 55:-1.0399028 56:0.43772078 57:0.59835768 58:0.34086365 59:0.094798438 60:0.37450871 61:0.93755817 62:-0.63035601 63:0.028918883 64:0.73797786 65:-1.4351648 66:0.42214572 67:-1.0737779 #
