SVM-light Version V6.20
0 # kernel type
2 # kernel parameter -d 
1 # kernel parameter -g 
1 # kernel parameter -s 
1 # kernel parameter -r 
empty# kernel parameter -u 
68 # highest feature index 
66 # number of training documents 
2 # number of support vectors plus 1 
0 # threshold b, each following line is a SV (starting with alpha*y)
1 1:0.12529562 2:-0.12529562 3:1.2834516 4:1.0142789 5:-2.2977304 6:-0.084951617 7:0.76879644 8:-0.48386702 9:0.011006327 10:0.42163554 11:0.25463498 12:0.78319103 13:-0.63329661 14:-0.71221769 15:0.086448036 16:0.086719923 17:0.80757397 18:-0.66848254 19:0.75425196 20:-1.6566246 21:0.5518527 22:1.5335869 23:-0.46435031 24:-0.31079432 25:0.7594561 26:0.81872904 27:-0.68091983 28:1.0246447 29:0.15131323 30:-0.74323642 31:-0.71489847 32:-0.39600807 33:0.94185275 34:-1.7208281 35:0.96083093 36:0.67156655 37:-1.2692398 38:-0.57300001 39:0.69497877 40:0.57570505 41:0.90946639 42:0.42348748 43:0.70612943 44:0.22696145 45:1.360448 46:-1.239921 47:-0.33787104 48:-0.58429599 49:0.26633167 50:-0.12745009 51:-0.52863783 52:0.20032805 53:-0.52117229 54:1.2252811 55:0.87008369 56:-1.6363015 57:0.46549729 58:1.4492848 59:-0.1229881 60:0.92527741 61:-0.7357986 62:-0.92986476 63:1.1720058 64:-0.85178113 65:0.16109233 66:-0.69729191 67:-1.1763396 #
